0,1,2,3,4,5,6,7,8,9,10,11,12,13,14,15,16,17,18,19,20,21,22,23,24,25,26,27,28,29,30,31,32,33,34,35,36,37,38,39,40,41,42,43,44,45,46,47,48,49,50,51,52,53,54,55,56,57,58,59,60,61,62,63,64,65,66,67,68,69,70,71,72,73,74,75,76,77,78,79,80,81,82,83,84,85,86,87,88,89,90,91,92,93,94,95,96,97,98,99,100,101,102,103,104,105,106,107,108,109,110,111,112,113,114,115,116,117,118,119,120,121,122,123,124,125,126,127,128,129,130,131,132,133,134,135,136,137,138,139,140,141,142,143,144,145,146,147,148,149,150,151,152,153,154,155,156,157,158,159,160,161,162,163,164,165,166,167,168,169,170,171,172,173,174,175,176,177,178,179,180,181,182,183,184,185,186,187,188,189,190,191,192,193,194,195,196,197,198,199,200,201,202,203,204,205,206,207,208,209,210,211,212,213,214,215,216,217,218,219,220,221,222,223,224,225,226,227,228,229,230,231,232,233,234,235,236,237,238,239,240,241,242,243,244,245,246,247,248,249,250,251,252,253,254,255,256,257,258,259,260,261,262,263,264,265,266,267,268,269,270,271,272,273,274,275,276,277,278,279,280,281,282,283,284,285,286,287,288,289,290,291,292,293,294,295,296,297,298,299,300,301,302,303,304,305,306,307,308,309,310,311,312,313,314,315,316,317,318,319,320,321,322,323,324,325,326,327,328,329,330,331,332,333,334,335,336,337,338,339,340,341,342,343,344,345,346,347,348,349,350,351,352,353,354,355,356,357,358,359,360,361,362,363,364,365,366,367,368,369,370,371,372,373,374,375,376,377,378,379,380,381,382,383,384,385,386,387,388,389,390,391,392,393,394,395,396,397,398,399,400,401,402,403,404,405,406,407,408,409,410,411,412,413,414,415,416,417,418,419,420,421,422,423,424,425,426,427,428,429,430,431,432,433,434,435,436,437,438,439,440,441,442,443,444,445,446,447,448,449,450,451,452,453,454,455,456,457,458,459,460,461,462,463,464,465,466,467,468,469,470,471,472,473,474,475,476,477,478,479,480,481,482,483,484,485,486,487,488,489,490,491,492,493,494,495,496,497,498,499,500,501,502,503,504,505,506,507,508,509,510,511,512,513,514,515,516,517,518,519,520,521,522,523,524,525,526,527,528,529,530,531,532,533,534,535,536,537,538,539,540,541,542,543,544,545,546,547,548,549,550,551,552,553,554,555,556,557,558,559,560,561,562,563,564,565,566,567,568,569,570,571,572,573,574,575,576,577,578,579,580,581,582,583,584,585,586,587,588,589,590,591,592,593,594,595,596,597,598,599
0.012107438513657105,0.15726691821447336,0.2932600431268181,-0.24036319897556915,0.16888273235400897,-0.07581483729500649,0.2455453617702062,0.17012434488413994,0.19299317581188818,-0.08477884439606603,0.2509537929447699,-0.05439189379163829,0.01951743680967797,0.18369636271993556,-0.1219306712756418,0.07307489337532037,-0.23361023042183413,0.025682434085590355,0.017685100574493906,0.21635162824349452,0.43680452989268886,0.1816358129385142,0.17197794626208177,0.29263467555284595,0.22967907676986532,-0.03207253678143123,0.293333522558118,0.17701538807113743,0.2999490192196764,0.18793634679004673,0.14609340643116986,0.06552906596135602,0.04860305976882402,-0.01626314240238895,-0.002699524326853739,0.0018024340192914733,0.22192032741513162,-0.02110795481129551,0.18521061174735864,-0.25142748969967665,0.1055003182422078,-0.07662569290317062,0.30060660764129005,-0.08419419149304379,-0.012544682371849502,-0.12569294296607297,0.009902331755066218,0.26474861610614137,0.04688748540573139,-0.19276287279843454,-0.09454421374127442,0.2720496949697257,0.23846330697168325,0.11954024012498139,-0.0886555125417685,0.05677095333583493,0.07710687303140694,0.22729290759158471,0.013295935744778655,-0.13590687167307416,-0.23552380085412025,0.41476353612122546,-0.27712177428294515,-0.129974932148614,-0.26764122467739726,-0.22613141543935092,-0.07785586198898836,-0.15988495998131522,0.033399976238481476,0.16345335350137644,-0.15792260586325949,0.09177637420466583,-0.0025405080632976995,-0.20629716567655382,-0.18747847576960922,0.04742251478758663,0.07967425060732812,-0.20311254045453725,-0.022086718913727453,0.23683248276613073,-0.06982068446191689,-0.33653971731207155,-0.31190701624740175,-0.18112095758535146,-0.36154216121429256,0.17344670622258268,-0.24374105401582094,-0.17430673810244565,-0.271722142148059,0.008669564206157604,0.2639797869387353,-0.18165777811529776,-0.1631482815596656,-0.18342179449250065,0.1855972675605134,0.1458459265721175,-0.3023473730277676,-0.015830862644147212,-0.23995614192662953,0.26054779583799964,-0.11761705368947341,0.039241460859133784,-0.1687055715305601,-0.09736310093244065,0.13912812363900945,0.07942292659387412,0.22895952804247546,0.009615679776195438,0.11176348602567794,0.10820200958122085,-0.18842830924102852,-0.31504141897238475,0.03804666373907953,0.13483956858042742,0.13717778127571922,-0.19824507017009846,0.23486508997813513,0.1936505165752745,0.0882727282491894,-0.148331478605903,0.267317538093188,0.0019792622902389204,0.1607796069188452,0.19035846257325595,-0.1820182703507999,0.17626936934378445,-0.10420420704641804,-0.10702709323172688,-0.0488895297393127,0.20012301067755148,-0.024061292483625374,-0.08743398129274564,0.288898703539126,0.024424494530757162,-0.06528819295517589,-0.05385450498731449,0.2610867961675451,0.13633441526491277,-0.14664596837792893,-0.20337247545032539,-0.00021838475046770812,0.07373382922295568,-0.1844937235706101,0.3748156671359105,-0.1885558129617131,-0.11139014950196538,0.008822679824852617,0.05831819806570326,0.14860939060524944,0.09627435802267234,0.034762320432074896,0.06389967917620806,-0.1562172425024229,0.19629490524823753,0.011707601849770682,0.09527231365475035,0.10277956811886747,0.19956994932805847,-0.01794288650418138,0.2507923063410843,0.10583663807835988,-0.07645487238659168,-0.07636189302787055,-0.11324639046250234,0.11813746609462024,0.20109037759157458,0.24724274217350387,0.2374701011708042,-0.08053383279497921,0.07779987107919843,-0.22847961355283786,-0.10568021107002988,-0.018604444385915676,-0.14096333420346646,-0.04930155588272025,-0.025078503505579622,0.017574853769482045,-0.073545572131838,-0.00530468466912243,-0.19266873361248985,-0.02224054731738698,-0.02671476299406826,0.1558753330046968,-0.21936842365271506,-0.06673261803622987,-0.05670412865578907,-0.09045789186945499,0.13509002811785642,0.13452589365228207,-0.016316958978059834,-0.13206350868735692,-0.1379232477042818,-0.023937235264259636,0.01564811129029913,-0.2305351736621726,-0.23650954028403556,0.001959573958600051,0.20653303121935523,0.1945947514311297,-0.05653625992487281,-0.20809054742256985,0.0022568517590714427,0.0061496025879799,0.23648380321284462,-0.23851900912699533,0.1379798668155274,0.21880343516539094,0.10476311122173397,-0.08227628687982758,0.17529745134514038,0.20164969331685884,-0.11498131317888194,0.16152817786490972,-0.013540180143684636,-0.017126904210485492,0.2810326557297371,0.19462407625587064,0.2700404497032407,-0.025256395318893215,-0.00824455509028463,0.1736985547983107,-0.07304845556726114,-0.20167537680149497,0.030124924024447886,0.01674882982286092,0.08805332728287427,-0.024697080611736432,-0.1721296314455039,-0.20082294525718214,0.01725536426045923,0.40183240864194814,0.3963568471744356,0.3593578068349401,0.055566084970633006,0.1759044451716409,-0.07112174467642185,0.12095939947556127,0.30348639581189,0.23558149882482232,-0.10167035993890212,-0.11726283250367968,-0.10358716999889338,-0.14381120596870645,-0.08443144145474461,0.1977658732789697,-0.04099791347418045,-0.17232637425091502,0.29722071560870905,0.3025073999727942,-0.07351928588450521,0.10111372491208001,0.0773142460297201,-0.007629876742149383,-0.1247605674176952,-0.03440540318979048,0.0935978465249754,0.16772944502570916,-0.06012347044048913,0.2628799482703483,-0.23847786628165704,-0.06381617634320613,-0.19524846035323964,-0.1596683776895465,0.1381265270433972,0.3457737569065806,-0.05860405305625279,-0.10340387409676317,0.349877481150523,0.2497893664860702,-0.044980926784408216,-0.12097567629820356,-0.27785192345209,0.01971929616140161,0.13121410067808284,0.0768075630262378,-0.17242392243941385,0.10266136806640448,-0.1568846488449122,-0.09175905712378975,0.1550755741612305,-0.12360092779664074,0.05567292042934948,-0.18180968656357882,-0.13899164007787712,0.26386032647448504,0.027918585836720543,-0.22150068424996688,-0.0827948801191641,0.17788307631482833,0.1127735917757076,-0.08335484129135026,0.2035248435983279,-0.23120643771969412,0.059850564651421315,-0.01652254562120683,-0.030567721436595655,0.05740096845708652,-0.23377047268113094,-0.09857248651203826,-0.012843255924776354,-0.034661887369805085,0.1302533088188042,0.12176575545276383,0.09455102123934349,-0.11845398568769737,0.13359684697327312,0.20490679769276582,0.19917501265633727,0.09777068403657475,-0.07240936320256543,0.09148212045802603,0.0019448849478349857,-0.011761384949301894,-0.19117585874273724,-0.12093027200520834,0.001780966287455004,-0.1759898499308734,0.13680207476724748,-0.024949304817748527,0.13313419525130082,0.05083297383064872,0.4077794209193006,0.10381859438342148,0.3472728043492227,-0.20867158070420286,0.13333558878596105,0.0043729432506351,0.17802538754146735,0.04481235892887261,-0.2863078617200657,-0.08932410331698991,0.13431793120303906,0.3235519240892205,0.24950574051259705,0.08189299275472785,-0.12076241146131349,0.1669547874301705,0.23926105547377172,0.21155146837061672,0.11684177791937711,0.3041213425596287,-0.11567830701873692,-0.04954688888588598,-0.020712497283363978,0.23255294297547463,-0.09278926948051767,-0.015531635361212374,0.13871538024084204,0.16317597004196738,-0.18230739997456719,0.0066838025010654166,0.41673602287657374,0.3990460249065426,0.11102870689220837,-0.021312302888471253,-0.10624965275506362,0.4407379966540253,0.18333388944065723,0.07965554819071712,-0.2263433315217677,0.1772511875287981,0.09062554312049681,-0.2439063565991299,-0.1974150768902592,-0.12131884979645681,0.22340128993022723,-0.48367952261511854,-0.25820382301825107,-0.09903380463370427,0.07130683066452655,-0.31999875780881065,0.07797945417768955,-0.2155197996271679,-0.00861343737023228,0.024412602963687243,0.2214607417238208,0.14274991468145132,0.2539288451400114,0.1833164892063317,-0.0469494252046197,-0.42892272647927376,-0.8080512706612094,-0.047900964959917816,-0.5215097547561529,0.06467800070028216,0.24747019396531242,-0.5316748622792739,-0.4443821017146292,-0.38057725085064037,-0.12436486506087369,0.29014383180452274,-0.10011547228624974,-0.08493511872179424,0.11865464094969559,-0.1633302969797095,0.016147016769404623,0.06834037116194032,0.1908898293139888,-0.13967014466894445,-0.26336096459603225,-0.19413388096516473,0.0198830439788663,0.13123782249312613,-0.2766578444303274,0.15534722399840392,-0.2460336250656058,0.08191572674820176,-0.14508030928579427,0.19478795489606163,0.07650254787511737,0.42307874913521004,0.3133682136221797,-0.03173587335168919,0.0637673961688674,0.2566832103273067,-0.3831559095949113,0.23099126233463158,0.4331392161934241,0.12283080297572388,0.12959853241502647,0.08160848118700371,-0.025427586569116128,0.030548715588363473,-0.3270763162949015,-0.06353264655855294,0.05322527910844028,-0.30110065619232046,-0.47038603982595845,-5.8796292390831434e-05,0.32157701071474737,-0.45083980647967997,0.1687934987874757,-0.2871862732947442,0.10658339651492608,-0.03888094404538671,0.22433068825513966,0.06525311880170677,0.12421906373635412,-0.10123099653330667,0.28660428739648114,-0.41727473031756546,-0.7656299588885487,-0.3227670974218572,-0.5752766607824598,-0.1285204355093417,0.19909695254101986,-0.4651940214831061,-0.6442075352296838,-0.5403047115247549,0.09322402447924528,-0.09369453790613096,-0.12262486127615327,0.05740274907742457,0.09827640698439928,-0.1252377647915273,0.13323783308557763,0.24181966538060415,0.09891246613637791,0.10740820755816016,-0.19750513466098404,0.1439671711936642,0.04036049096855824,-0.05211960852613249,-0.07721766918410909,0.15994351521004668,-0.05259470819215723,0.07484196122257257,0.11152825034498115,0.10420248542242962,-0.1617115869699563,0.07162257790828355,-0.22093659790304598,0.0800605728366973,0.3148605334121317,-0.22598790306428432,0.1048142481535864,0.007998795743812626,-0.12063057345371611,0.014668041632373945,-0.030116791256839928,-0.06704845796301614,-0.07649651274209662,-0.24297238649535247,-0.1578594361826219,0.21208049804229837,0.020384049536390517,0.14583369661662324,-0.12321462350830299,0.2577160320831719,-0.1213115599374647,0.06992066816501553,0.017081618123017738,-0.3374014049286384,0.016354561204145468,-0.021362368341548567,0.11058659324196239,-0.30090289742175436,-0.19026963334135527,0.197276794319619,-0.061570820797877665,0.061684386677034034,0.21382682437060033,-0.10864438843393683,-0.009964001349600042,0.006849306644468368,-0.0743771121532254,-0.19513431355691327,-0.013496092778546772,0.24751035949538308,0.21288135722844434,-0.2522039036601092,0.04223703383784937,-0.028876643951958433,-0.11097337021816718,0.24445223291214513,-0.09075966175976902,0.11820397703499441,-0.15794634790557938,-0.16462942069684128,-0.21049072365410812,0.21584004532194778,-0.01592985517631862,-0.11985594861928804,0.27295188363879336,0.20300293491685292,-0.11297367270764301,0.2930746720726694,0.2052287146125433,0.20506918438629004,0.19334092755710247,-0.200143479827895,-0.015728617344142905,-0.08009958912268324,-0.12103539792075263,-0.06340582246222268,-0.24912753251288783,0.14131574120417176,-0.03952060614706717,0.11716810390451138,0.01049349080633238,-0.17278044278129773,-0.19050374248342053,-0.125375849452989,0.12347401274050311,0.08803994090403534,-0.16694647907536916,-0.1696571758972371,0.14091098107630354,0.10307142047197769,-0.0737287371278386,0.14101568415348206,-0.2511545486147007,0.06964795531350351,-0.1459922103730995,-0.11988963978706974,0.06587778664464093,-0.1260966963703317,-0.058611440148697055,0.1047910677272018,-0.1781660796710046,-0.042290143700700104,0.14637484000081058,-0.05284656028358015,0.10519245442734541,0.21471628860986525,-0.12183235461813695,0.19900823223735875,0.2035348779643967,-0.25741836638491644,-0.16137431450141043,-0.14290272857431702,0.10205014348556195,-0.1617093702517622,0.0485485922080917,-0.09152247196958041,0.056390815677182335,-0.01901419227612122,-0.09737596267637126,-0.01182844697603384,0.029729837999177094,0.23782410794228542,-0.17043465743144995,-0.2678127411401082,0.1447627580739361,0.21789207380591769,-0.12332480146123237,-0.14439790532594035,-0.19379324927877498,0.05179808361560609,-0.06771238119565595,0.2777391207704916,-0.053960810244841007,0.09648805108303536,0.22445076119901392,0.19945124088048016,0.06901565365213788,0.2177580476995147,-0.06784507240799863,-0.00709378852185845,0.23001670926244472
-0.137770806961018,-0.3795855582054871,0.5463036669020965,0.1887079883743596,-0.23357480352426113,-0.0031746285654947687,0.004979691097235856,-0.18471662284959953,0.20029625480939514,-0.0032133614176435878,-0.48780732554364087,-0.23895052310268897,1.1026990401792962,-0.07872928423654682,1.234366871408137,-0.023895227496242438,0.23228965924296152,0.015090870819163207,0.0,-0.19862153501794555,,,,,,,,,,,,,,,,,,,,,,,,,,,,,,,,,,,,,,,,,,,,,,,,,,,,,,,,,,,,,,,,,,,,,,,,,,,,,,,,,,,,,,,,,,,,,,,,,,,,,,,,,,,,,,,,,,,,,,,,,,,,,,,,,,,,,,,,,,,,,,,,,,,,,,,,,,,,,,,,,,,,,,,,,,,,,,,,,,,,,,,,,,,,,,,,,,,,,,,,,,,,,,,,,,,,,,,,,,,,,,,,,,,,,,,,,,,,,,,,,,,,,,,,,,,,,,,,,,,,,,,,,,,,,,,,,,,,,,,,,,,,,,,,,,,,,,,,,,,,,,,,,,,,,,,,,,,,,,,,,,,,,,,,,,,,,,,,,,,,,,,,,,,,,,,,,,,,,,,,,,,,,,,,,,,,,,,,,,,,,,,,,,,,,,,,,,,,,,,,,,,,,,,,,,,,,,,,,,,,,,,,,,,,,,,,,,,,,,,,,,,,,,,,,,,,,,,,,,,,,,,,,,,,,,,,,,,,,,,,,,,,,,,,,,,,,,,,,,,,,,,,,,,,,,,,,,,,,,,,,,,,,,,,,,,,,,,,,,,,,,,,,,,,,,,,,,,,,,,,,,,,,,,,,,,,,,,,,,,,
-0.35251228987321576,-0.08193586332821724,0.05104029743828366,0.25439508754232243,-0.10150672658965375,0.10408632916336631,0.09751341627806927,-0.13032260653409888,-0.32753950787305675,0.17570715915553464,-0.02135734193879465,-0.07584716279137499,-0.05222832345127451,0.3063997703903889,-0.1024235848804285,-0.26591267929274326,0.039422139314531694,0.05262913524407895,0.10840569421345714,-0.25766183208393106,-0.37095776279453874,-0.2887546170430915,0.45438120557022976,-0.20152865388993885,0.18124399937677793,-0.1300097629234863,0.01884645545644881,-0.6476326263365948,0.30727970644909514,-0.12226980689017267,-0.18919370864888074,-0.6226322283963529,0.9339023874604854,-0.42592719619957714,0.5059373483189755,-0.06296551489596278,0.19755524486308176,-0.06674940483736125,-0.20097465372017434,0.029850363762405695,-0.03253317046479009,-0.051287363386654516,0.24580511406724853,0.2805537664582267,-0.3023567674456714,-0.246469143644613,0.20627102123211172,0.27946418493715425,-0.0390407026497413,-0.2487464689969531,0.2602824242743746,-0.32077665181760445,-0.0554617925973701,-0.2641794061835423,0.1239305623039561,-0.2147597921732793,-0.1004786554550202,-0.015201278217811984,0.09558144441589235,-0.2772245393911101,0.05226112547362948,0.23682599487964542,0.20718515273197935,-0.03710085177656549,-0.03296925955226594,0.17591746232809996,0.055989895883923176,0.03337278529760401,-0.3269021074965108,-0.1901688593180448,-0.3505424977418507,-0.12326069297116968,-0.2875431275152481,-0.10673978810105507,-0.1724012298157399,0.08912018776513177,-0.06217378283139848,-0.28692846833291846,-0.3549825623529161,0.2394600654559724,0.1479915238906505,0.20213359610544582,-0.02310596697674603,-0.023948986068341845,-0.19860225074520382,-0.11628787990134822,0.22510816237586545,0.2013520821368524,-0.06369797147048302,-0.042381930849359706,0.3701261092290534,0.2097478355367453,0.2898118472016385,0.17307232913236928,-0.42438535899066104,0.05970454400250793,-0.3432556953298362,-0.217690583911876,0.1697255523384476,0.12192931425826091,0.515272637175182,-0.5039699100312557,-0.9253170911004495,-0.56218974626409,-0.432898024794141,0.16365391545988744,-0.1727659320011182,0.5869567926671942,0.4822644851630643,-0.025475398189646503,-0.6521282050703964,0.41892532324326703,-1.3724881962122775,0.5994296537754732,-1.8406985601761614,-0.268718472144458,0.40352503296928155,-0.31240559816799063,0.26308022089762645,-0.3692994629172957,-0.2060445994692995,-0.24437894682647762,0.17138757894567594,0.19983047766228595,-0.13633725306130334,-0.1800933518159663,-0.049079005271957805,-0.36306356772472564,0.06367450166724196,0.2189265271140685,0.09392273785440673,0.25490735839376116,-0.2604491553380628,0.04171610095903234,0.10089695949211061,-0.0445391365602227,-0.06211651245483913,0.26722630830153066,0.21009461614190195,-0.0027005738611456847,-0.42009107829441533,-0.12219713409844749,0.05794770093953314,-0.175610077423636,0.17729885794985611,0.08559572391505654,0.12570914194071117,-0.1719742974344906,0.04074107652759553,-0.031280705893111056,-0.324147647713018,-0.2874074956162816,0.7447932007371517,-0.1153926761166818,0.7232846303193583,-0.02237174992338525,0.12647453868328262,0.2526345679992352,-0.3077014431756554,0.1152009356424479,-0.33407032857860125,-0.1260964065980298,-0.1734162125293564,-0.22253332307952076,0.10338580886801363,-0.3245845635857675,-0.34507532702247434,-0.03173757685846705,-0.12039409410346028,0.0475493977700268,-0.02968993685676506,0.31966699441884056,0.02975691592423893,0.06472581842574894,0.06908728584941691,-0.18687744019459188,-0.24961447953630878,0.25262651674343134,-0.10852948167625581,-0.32127147053937555,-0.1358329324262276,0.08079484958064286,0.23450187578138257,-0.18704254557802427,-0.043656925165865515,0.0732364815500426,-0.25225034206523494,-0.1689015424660468,-0.09054683692010676,0.1408927120707408,0.054560793995175265,-0.4067801933822944,0.519092879857055,0.1311082204110539,0.3915605157271369,-0.27417514489710365,-0.02557339874533918,-0.3025897623109657,-0.26975335537082806,0.23656847577760773,,,,,,,,,,,,,,,,,,,,,,,,,,,,,,,,,,,,,,,,,,,,,,,,,,,,,,,,,,,,,,,,,,,,,,,,,,,,,,,,,,,,,,,,,,,,,,,,,,,,,,,,,,,,,,,,,,,,,,,,,,,,,,,,,,,,,,,,,,,,,,,,,,,,,,,,,,,,,,,,,,,,,,,,,,,,,,,,,,,,,,,,,,,,,,,,,,,,,,,,,,,,,,,,,,,,,,,,,,,,,,,,,,,,,,,,,,,,,,,,,,,,,,,,,,,,,,,,,,,,,,,,,,,,,,,,,,,,,,,,,,,,,,,,,,,,,,,,,,,,,,,,,,,,,,,,,,,,,,,,,,,,,,,,,,,,,,,,,,,,,,,,,,,,,,,,,,,,,,,,,,,,,,,,,,,,,,,,,,,,,,,,,,,,,,,,,,,,,,,,
0.0,0.5937295501702098,0.044131543019658576,0.0002862713585355222,-0.1432265879863644,0.1241769233914548,-0.07376233691400605,0.23323187509701168,0.0,0.17795179197513572,,,,,,,,,,,,,,,,,,,,,,,,,,,,,,,,,,,,,,,,,,,,,,,,,,,,,,,,,,,,,,,,,,,,,,,,,,,,,,,,,,,,,,,,,,,,,,,,,,,,,,,,,,,,,,,,,,,,,,,,,,,,,,,,,,,,,,,,,,,,,,,,,,,,,,,,,,,,,,,,,,,,,,,,,,,,,,,,,,,,,,,,,,,,,,,,,,,,,,,,,,,,,,,,,,,,,,,,,,,,,,,,,,,,,,,,,,,,,,,,,,,,,,,,,,,,,,,,,,,,,,,,,,,,,,,,,,,,,,,,,,,,,,,,,,,,,,,,,,,,,,,,,,,,,,,,,,,,,,,,,,,,,,,,,,,,,,,,,,,,,,,,,,,,,,,,,,,,,,,,,,,,,,,,,,,,,,,,,,,,,,,,,,,,,,,,,,,,,,,,,,,,,,,,,,,,,,,,,,,,,,,,,,,,,,,,,,,,,,,,,,,,,,,,,,,,,,,,,,,,,,,,,,,,,,,,,,,,,,,,,,,,,,,,,,,,,,,,,,,,,,,,,,,,,,,,,,,,,,,,,,,,,,,,,,,,,,,,,,,,,,,,,,,,,,,,,,,,,,,,,,,,,,,,,,,,,,,,,,,,,,,,,,,,,,
-0.19672422774321488,0.0319257814686196,0.4516580828148256,-0.40148293575402283,-0.13637008146563925,-2.690942406535002,0.050149288094032865,0.007071130060622328,0.19828027324901754,-0.2440138661236922,0.16653841923133825,-1.5449493880579361,-0.5499606227392382,0.12229745422549866,-0.5397052604065244,1.2750486692673977,0.355551679358757,-1.0786137025181752,-0.08458012341280392,-0.5015828625174459,,,,,,,,,,,,,,,,,,,,,,,,,,,,,,,,,,,,,,,,,,,,,,,,,,,,,,,,,,,,,,,,,,,,,,,,,,,,,,,,,,,,,,,,,,,,,,,,,,,,,,,,,,,,,,,,,,,,,,,,,,,,,,,,,,,,,,,,,,,,,,,,,,,,,,,,,,,,,,,,,,,,,,,,,,,,,,,,,,,,,,,,,,,,,,,,,,,,,,,,,,,,,,,,,,,,,,,,,,,,,,,,,,,,,,,,,,,,,,,,,,,,,,,,,,,,,,,,,,,,,,,,,,,,,,,,,,,,,,,,,,,,,,,,,,,,,,,,,,,,,,,,,,,,,,,,,,,,,,,,,,,,,,,,,,,,,,,,,,,,,,,,,,,,,,,,,,,,,,,,,,,,,,,,,,,,,,,,,,,,,,,,,,,,,,,,,,,,,,,,,,,,,,,,,,,,,,,,,,,,,,,,,,,,,,,,,,,,,,,,,,,,,,,,,,,,,,,,,,,,,,,,,,,,,,,,,,,,,,,,,,,,,,,,,,,,,,,,,,,,,,,,,,,,,,,,,,,,,,,,,,,,,,,,,,,,,,,,,,,,,,,,,,,,,,,,,,,,,,,,,,,,,,,,,,,,,,,,,,,,
4.629837995448487e-16,7.601150818775993e-16,,,,,,,,,,,,,,,,,,,,,,,,,,,,,,,,,,,,,,,,,,,,,,,,,,,,,,,,,,,,,,,,,,,,,,,,,,,,,,,,,,,,,,,,,,,,,,,,,,,,,,,,,,,,,,,,,,,,,,,,,,,,,,,,,,,,,,,,,,,,,,,,,,,,,,,,,,,,,,,,,,,,,,,,,,,,,,,,,,,,,,,,,,,,,,,,,,,,,,,,,,,,,,,,,,,,,,,,,,,,,,,,,,,,,,,,,,,,,,,,,,,,,,,,,,,,,,,,,,,,,,,,,,,,,,,,,,,,,,,,,,,,,,,,,,,,,,,,,,,,,,,,,,,,,,,,,,,,,,,,,,,,,,,,,,,,,,,,,,,,,,,,,,,,,,,,,,,,,,,,,,,,,,,,,,,,,,,,,,,,,,,,,,,,,,,,,,,,,,,,,,,,,,,,,,,,,,,,,,,,,,,,,,,,,,,,,,,,,,,,,,,,,,,,,,,,,,,,,,,,,,,,,,,,,,,,,,,,,,,,,,,,,,,,,,,,,,,,,,,,,,,,,,,,,,,,,,,,,,,,,,,,,,,,,,,,,,,,,,,,,,,,,,,,,,,,,,,,,,,,,,,,,,,,,,,,,,,,,,,,,,,,,,,,,,,,,,,,,,
